[[[-0.1617752014734466, 0.41462401044039754, -0.04974161263744614], [-0.07234527855640793, -0.26332074677974304, 0.0061524791705400705], [-0.25571355938589324, -0.23185867051803166, -0.013629237457497445], [0.16918059382076744, 0.2814163937538684, -0.4905637770440474], [0.11884102640831806, 0.030754662780592246, -0.4835772035577951], [0.0560541487180114, -0.4675605714237323, 0.3539932680315321], [0.350284474870722, -0.2918313597671155, -0.3335034305698843], [0.45214524207793727, -0.029668832908158693, -0.31008528152937465], [-0.23340745186473222, 0.26743477563535745, -0.17778253411419442]], [[0.23251700053331725, 0.2964090840085448], [0.3245095301217652, 0.2720889466533434], [0.07127135292562026, 0.08403536333389527]]]
[[[0.07213504650400082, 0.2606196165323299, 0.2597811090264077], [-0.05768533193222036, 0.4673966792822706, -0.3191294091776775], [0.11454074254965951, -0.1039815089145889, -0.384672272040392], [-0.4233950970223903, 0.2633921481909274, -0.23455666725120194], [-0.12520336111699448, -0.49279298501912916, -0.43177760439846125], [-0.15313804354769978, -0.4737788070505121, 0.2147095211699359], [-0.06358885161783001, -0.22912805143539683, 0.35452834814324397], [-0.08773228774315411, -0.34369693846593474, 0.02399460817382426], [0.23620804677464624, -0.3190646558904955, -0.32826036048103924]], [[0.49573497506983377, 0.21270466991495895], [-0.24820829100540898, -0.16966466086786802], [-0.2160842224751779, -0.11944825600646547]]]
[[[-0.3681059202930679, 0.09420602075270379, 0.062269010588801854], [-0.06191703431828788, 0.4137922905520155, -0.022664781843555803], [-0.3446351913090985, 0.3129506950088857, -0.3099933138227713], [-0.3729621920781432, -0.4832307893995804, -0.26314279432742005], [0.2873029493038747, -0.04524636110933822, 0.3886364578533744], [-0.04983863379877551, -0.494295026701956, 0.42026954709878905], [0.1308508776842855, 0.025848179770839308, -0.33465967152552967], [-0.11218397521741064, 0.010833824960694849, 0.30440590988625327], [-0.4695727373291465, -0.3737186737591889, -0.13949522675000858]], [[-0.44055263945026324, 0.20682129928520876], [-0.11808318428355336, -0.3307640863855803], [-0.4863281320714392, -0.21320082005863905]]]
[[[-0.41772020751934624, -0.13274348136477465, -0.0651030270649754, -0.30248370312886064, -0.03224206739103508, 0.4800962196289774, 0.3849149373201439, -0.3708839555227804, 0.19383597116061435, 0.47542579441988075], [0.11197220752507864, -0.1559523963303, -0.2770452574836598, 0.2059038356950713, -0.37284100347242777, 0.07352500934798523, 0.18192751573563737, 0.20155817629199135, -0.16709481929984638, 0.32558002374691875], [-0.39578980456365165, -0.15115428610731607, 0.3883208756937351, 0.45135769531758874, 0.45170660176521626, 0.22013307638814694, 0.020186244137688214, -0.4826256784977665, 0.14608302763524517, 0.17754437629096176], [-0.33525234168792495, 0.17873728361023555, 0.31618752511011117, -0.3416403863079456, -0.03233392105660393, -0.13253056309116507, -0.3261950326884109, 0.422733929472344, -0.3350479431266957, -0.12198811927625075], [0.13229784276623258, 0.14782028419748316, -0.07843821627148218, -0.2157353336897554, -0.006473568129452212, 0.3924445251002462, -0.11472896046125403, 0.4104505633683153, -0.3060685462091316, 0.13787554730868345], [0.49125171920853383, -0.1753877448007255, -0.2425002773912952, 0.06813623652860035, -0.0005118858406241156, -0.16714937387451312, -0.14040239707955926, -0.10828453078484646, -0.033666093821726695, -0.4400898631674358], [0.44960037641635087, -0.2536216730419847, 0.45645413995224415, 0.22670492695052702, 0.4516428994807977, 0.08972148476432718, -0.286986397608772, -0.21066729434721831, -0.15334549032216527, -0.14436944291638665], [-0.3104716059851884, 0.2901024333597635, -0.00565009123319371, 0.18224892292637784, 0.20664129016818422, -0.42824075244632687, 0.06036945795882853, -0.14029355148662837, 0.22812796249951328, -0.1750461429016985], [-0.19397887685507864, -0.4738346700306151, 0.05855920825089134, -0.2433959422962848, -0.29188742057678174, -0.39417367252030855, 0.1368800345814689, 0.14896160037131745, 0.28123649342248536, -0.28204004386740955]], [[-0.14045617384062936, 0.25122873956470515, 0.13726153448965073, -0.231015419287382, -0.2077741418554665, -0.2992993722282604, 0.36177424936700053, 0.24513808457069863, 0.4976451859789134, 0.10200455539362285], [0.2819115751962943, -0.041363397367998544, 0.4221797779322557, -0.06350337212162926, -0.08553160141570904, 0.2763673939530985, -0.18411593872147958, -0.030870936317318076, 0.36257360713536346, 0.334430758712455], [-0.054633377282974016, 0.15598570646530008, 0.10784301160545717, 0.07195186090092776, -0.24866689023289823, -0.17204582383695288, -0.3148991021387778, 0.3585737357004152, -0.33672398526751846, -0.09099013303844139], [-0.47081957779740835, -0.1617919485541771, 0.30659044122415846, 0.10878673439117181, -0.009890218821924757, -0.1011905891021001, 0.09125507448451498, 0.04700325686854023, -0.39076238607052016, 0.035458585445168445], [0.13341522259500582, 0.25162919080611423, -0.028753888952797624, -0.024000916822808027, 0.038345836715861004, -0.11823073546416207, -0.4368252100423413, 0.12840757839330452, -0.055009340120071304, -0.29216373032672016], [-0.34506283651590886, -0.02222485658038509, 0.23649230095017548, -0.1334171996046215, 0.3375643797040577, -0.08339143737778743, 0.4438149877207951, 0.33517577832613765, 0.052380791616732036, 0.47586830465535257], [0.3101341154202839, 0.10162505312106684, -0.12927419601899437, 0.260914100044486, -0.028859735602110637, 0.05207265462335686, -0.30918824762183106, -0.2924149217065777, 0.16707277455186242, 0.19231421105439817], [-0.008593500941551868, -0.26920857181809177, 0.47121308718344734, -0.31644880229257355, 0.4568988184178865, 0.22556401800592618, -0.053138105590986084, -0.09731245416322598, 0.1751880978823166, -0.41956208147513485], [0.22662138458886183, 0.025429728628186155, -0.36613756492893446, -0.45378641374685236, -0.004462053721047021, 0.2911394862241563, 0.13539089393265646, 0.226951107527253, 0.023474750749971407, 0.187353900676414], [0.37397474780158535, 0.04631517761817139, 0.10844052406131832, 0.4498416557777578, -0.11001255427939827, 0.19062960912929117, 0.4347786316906045, -0.3991991089969531, -0.46685969508657255, 0.23613892657447788]], [[0.4697388034580514], [-0.38407015876359085], [-0.2761664950963991], [0.4733844364197265], [-0.12166354984663685], [0.08552506295809603], [-0.1370508471917694], [-0.3935973358078526], [-0.3895046745615556], [-0.06690081498772715]]]
[[[0.2739995905869129, -0.47903585655468617, -0.47390304334427125, 0.4757998821122891, 0.21296490350672626, -0.2948527455224639, 0.41537832072350367, -0.3312253926066754, 0.17949611274683208, -0.4623756836918611], [-0.02406615652072186, -0.06867952545491107, 0.17442930586512384, -0.498559013309848, -0.34240553039177457, 0.3120938841792703, 0.02682581692027619, -0.07694228113709634, -0.20413252070113874, -0.43728281337777375], [0.08508674504189451, 0.48102769723429595, -0.33805701943191513, 0.10746153745837628, -0.4731422638482281, -0.23297121082880068, -0.16345711081718384, -0.3352376055885161, 0.3736947699145491, -0.20853542807225234], [0.2488364700089244, 0.3295576216596646, -0.26099844487938817, 0.013395453541701019, -0.06824305024890265, 0.023061941158479815, 0.33001628375118663, -0.3203454721101484, -0.41781431208461894, 0.13231069826162], [0.2005814694286373, -0.31042267496925624, -0.29324327241366444, 0.33512653978787, 0.3742133657036042, -0.08040232195904096, -0.15828687874368252, -0.3719009289933678, -0.3554947302922141, -0.008553181705188817], [0.4107373492123306, -0.06353936931677862, -0.05652095457362616, 0.4415641890509755, 0.26594912267811754, 0.322370727751051, -0.43351694632583637, 0.1334112843611882, -0.019720622033150503, -0.25690332222041656], [-0.3529680785459417, -0.03027860838293106, 0.3821086845751711, 0.13364422877680637, 0.38300757948254494, -0.22546961760204332, 0.3656895238882627, -0.004142759512162142, 0.05637156273633015, -0.45597475425367984], [-0.1267446362168302, -0.12620220974827756, 0.37663633838731103, -0.06722375679546755, 0.14659878958694605, -0.1317625460398587, -0.2530729636584548, 0.07711470602714499, 0.31927023420251877, -0.3933716330698904], [-0.46486432483404916, -0.19664532369801657, -0.2663759368958132, -0.30833488323608493, 0.4880739505248731, -0.15017633353526172, 0.07446720665167372, 0.315617137985173, 0.05506790401826056, -0.3478114000972936]], [[0.16039024997249973, -0.3825440557091969, -0.29139719391445695, 0.061625050021757444, -0.1013705305388739, 0.36964992458829826, -0.2632803602577076, 0.4530885189183831, -0.14010427827881566, 0.23832150062851443], [-0.4174016694924173, 0.19128324169867406, 0.1781823437577249, -0.4466077921899847, -0.1222372753666936, -0.3721478154429645, -0.2163438155363797, -0.2394340964202657, 0.07006204166995622, -0.4425946558651461], [-0.2923987953044356, -0.21402613939498694, 0.09656435917026307, 0.06483551162205303, 0.064073270154973, 0.400740577581408, 0.10661757180656517, 0.22482609915989804, 0.29906332774380195, -0.14851476743044678], [-0.4721511312919371, 0.11947437168750363, 0.3410050306100264, -0.4016957373098753, -0.1781757124019413, 0.16376335293853506, 0.4761512274851145, -0.25354154950056773, 0.4279780596619458, -0.3566777916348425], [-0.3663240503951566, 0.3664456998070831, -0.3295012365475761, 0.4307049209558208, 0.3094872658626002, -0.221220375491335, -0.2851152947602792, -0.13003514423724682, -0.30900932163495576, 0.4256287066210135], [-0.36508970947423336, 0.13614065319356972, 0.012860228474424584, 0.4013213664107357, -0.19604632684693257, -0.26113648455803307, 0.4419104516847686, -0.4501609485825103, -0.4501711415001156, 0.11130551449367931], [0.41204014062298244, 0.2973093043800379, 0.30879115608829255, 0.22393144929772646, -0.4013821067946046, 0.27681595883141497, 0.4474021748374202, 0.27121300154135985, -0.17584147566677877, -0.017152763818351957], [0.30136916979461337, -0.053401616170271504, 0.1990763816209673, 0.28186470509875006, 0.09678944471482642, 0.1545892990005291, 0.22992442095007704, 0.4692338641827114, -0.17114653495649845, -0.04735408756845394], [0.20954002291285168, 0.3200209021446889, -0.37247153959694324, -0.4379870511790874, 0.4667661311015008, 0.42639426911942047, -0.12261548285166202, -0.4115749156463562, 0.23094829213520018, 0.3204116555886646], [-0.26650119155157714, 0.2239329935120311, -0.030680793043319166, -0.21669529867758608, 0.38820445110054436, 0.3404267854845414, -0.24097748307358946, -0.33303555047455013, -0.21540036603614754, 0.011754690650720434]], [[-0.22831183181110215], [-0.4298723668614376], [-0.061438972693534155], [0.46673335857974474], [-0.06623662185075918], [-0.45922659470930605], [0.11966899454264601], [0.01291262979445551], [-0.08691436563778943], [0.12824594480893714]]]
[[[0.007899862331794738, -0.02024134418009349, -0.07061754436172818, -0.08530711941004854, -0.10212361244275991, 0.19921418815269976, 0.3091431005294042, 0.3655183179570759, -0.37332416474523344, -0.0496206779045304], [0.31331989487647527, -0.048449154529535576, 0.14672956475769916, -0.4314646520859329, 0.40685993000249365, 0.33290205044185195, 0.3985400767414573, 0.3276083985262983, -0.22846482843415938, -0.05169716561584836], [0.08605351416794205, -0.030767466151810252, -0.43970710066326435, 0.4549967417259151, 0.3551824009471155, 0.33820033981808517, 0.27776338873283557, 0.2754071775180533, 0.37789266791887766, 0.08482335449112477], [-0.43352248400359406, 0.0001530254992787583, -0.05494158348180811, -0.3626797532262408, 0.05514843139023884, -0.271964673071856, -0.07060359831783214, -0.30725149988590184, 0.08241459022572872, -0.03630766253857287], [-0.2690990900318512, -0.3731166738039351, 0.08330821173185299, 0.3019869088267698, 0.3149491008572768, 0.46773526027538725, 0.49583501595851753, 0.3850418562764253, 0.11662753827124173, 0.3209408851759822], [0.36622585821269726, -0.41167846711113043, 0.4269960290944742, -0.3110990556723785, -0.11748214023547532, -0.39268045239975957, -0.27788269631946594, 0.3805907211680022, -0.071023686073178, -0.02044918537432383], [-0.16659751390940003, -0.09846735070987933, 0.13253031699697526, 0.3907972551410476, 0.288753543013745, -0.4005415877843387, 0.02591208789747257, -0.4832120596907149, -0.41993444501766175, 0.09897101626618832], [0.4747715851961837, 0.4013258755295842, -0.3407993325919889, -0.4258565173927057, 0.10171736473639814, -0.1554409265692156, -0.017475078901120655, 0.0012038339124459396, -0.08900515331952352, -0.24015596084864388], [-0.12850831949552521, 0.4209599134339349, -0.4884095640214253, 0.08761211077305364, 0.034471515656000484, -0.2162998775916417, 0.19636663316976988, -0.13255862176300814, -0.12555286794092235, 0.18052160673159745]], [[-0.0406345799805905, -0.23204313681309785, 0.18104895454822, 0.4233341983695207, -0.3667759707604289, 0.36518347329312684, -0.112264497657938, 0.19797891338248164, 0.4896467481815828, -0.3698065647784522], [0.3765217848995398, 0.22924142494760702, -0.052551753301745885, -0.10845284638529618, 0.48727938962138584, -0.09655823971207111, 0.04639316101926516, -0.23654050864426412, 0.09927642542365123, -0.1931486098575006], [-0.2438263789420645, -0.3299027927006386, -0.07299819586547918, 0.4517591011629365, -0.2376643401751286, 0.026342410201672273, -0.1539455275419832, 0.310238391776238, 0.4755209762665814, 0.0027669810510217996], [0.04946418349546333, 0.32313969448200974, -0.2587133072024609, -0.4690188052480867, 0.014650954415888595, -0.1979632803752851, 0.15519830227813358, 0.4404975037768063, 0.27519943539956637, -0.047235284787621845], [0.4812236186052812, 0.4987513737601127, 0.03539382837911487, -0.34000367428180023, 0.20074407139242667, -0.19449838286313548, 0.11943075570493589, 0.22104879203618732, -0.17111693669713812, 0.4269840305815791], [-0.13281854492948697, -0.41547656134104827, 0.07246751320967759, 0.4486659923434224, 0.3947747317964846, -0.06875020380585861, 0.33876937842373767, -0.0996890187961943, -0.4935206672796405, -0.355591063731868], [-0.2959001553208518, 0.3988382094255575, 0.2716034015752039, -0.4585025711548798, -0.46282904936423974, -0.23925558979193273, -0.3839018797825978, -0.28334212294929173, 0.22755329590551343, -0.148508981880226], [0.3700067987371882, 0.2804071941518992, 0.1637176860799664, -0.4839333943254197, -0.01302147602464021, 0.22487795052013282, 0.48587537545136206, -0.1744909369314136, -0.09380304258789474, 0.4533786146983927], [-0.4539961264326047, 0.4868869590104128, -0.10212562149877769, -0.36706727314567433, -0.2775785727324678, 0.19137166517324677, -0.41225379725164746, 0.14970502460709367, 0.42270783741446194, -0.23845213093566175], [-0.13323535024807776, 0.2838773081089425, 0.07528803590628097, 0.09724081015853603, -0.4489379761166691, -0.4971180661244582, 0.050928775795628045, -0.0931298089567224, 0.48675782690061165, 0.04302480740588088]], [[0.07914817426024601], [-0.35954783392670897], [0.4855766421079114], [-0.481707479410426], [-0.4643569173562877], [-0.08762874050011471], [-0.0456101669239527], [-0.33819325054272686], [0.030836287280702757], [-0.028473208949413076]]]
[[[0.021378031909728534, -0.09972738162413886, 0.16277836781637023, 0.4784494956300762, -0.29211290433992976, 0.30009053306886313, -0.3447845456842512, 0.11362369414323459, 0.3057260924872668, 0.29030873700977766], [0.13488665112331866, -0.14244043227340897, 0.40573811240780366, -0.39391603987146373, 0.18077513089912856, 0.07126455642513674, -0.41981913389179293, -0.11731415953044266, 0.48990594880819494, 0.38163793876153007], [0.2862511338953302, 0.2349927024872449, -0.13641165117316667, 0.0821219956786352, -0.04610002843677763, 0.08756007719181624, -0.053515014381382064, -0.012505564046036088, 0.35326939307029404, 0.14298548760641006], [0.3932577970589435, 0.15279970567396506, 0.25399513202607515, -0.12874329332054624, 0.23039000090778805, -0.2410191086846657, -0.26928054676888746, -0.3922134322688936, 0.3604513872125127, 0.18509015076341173], [-0.12192454400194519, -0.2801114130013216, 0.044094075231021934, -0.42097412157612857, -0.045970490558627786, -0.17095358686990925, 0.3434430212772809, -0.30253148213683256, -0.2009026302812803, 0.3365953332868039], [-0.4536917814794247, -0.4687038241928102, -0.37568156482032955, 0.0884251055114953, 0.36027047614872043, -0.3433157668110124, 0.40695141336948126, -0.1941361985833815, 0.014908155936225853, 0.2854638085995823], [0.39202666528072316, 0.09717562107759825, 0.07866600696636117, 0.356623134958562, -0.007352237721794497, -0.373664401088579, 0.2868901730106851, 0.13020095869397086, -0.1512740012488507, -0.08059931610418147], [0.43808213628588655, -0.4365499193369582, 0.36486832462690955, -0.035840551503149576, -0.42664459705479874, 0.09316672218581579, -0.09743172419704416, -0.2603187814965313, 0.2540497697393007, 0.34331471712607653], [-0.473090904989489, 0.4258967399875778, -0.01503533977415461, 0.363120250825238, -0.38568894677940846, -0.20643012203096867, 0.3636980402993135, 0.47307267628291316, -0.04738300558161612, 0.29501851489431696]], [[0.03946022131389082, 0.26916562235811603, -0.07061383183672765, -0.26555566561999666, 0.05522643527238935, 0.17473189779710474, 0.25411394825175904, -0.41303048639958784, 0.48309608459946074, -0.3322032318717555], [0.04399952895177983, 0.3256995419748887, -0.3436211359699286, 0.014002032605885284, -0.38408906961163236, -0.2584598296547779, 0.12615765283568703, 0.0661010615857861, -0.08262680587505422, -0.19763905214584188], [0.35402185437312206, 0.25302368957682586, 0.14478282887765237, -0.37660533742448865, 0.21985278386745166, 0.32699453210702456, 0.29974748601173684, 0.12464016607774575, 0.2607468153621312, -0.2742927130669587], [0.34660347078868214, 0.3049507675773332, 0.17969921742720663, 0.13257626159517633, 0.3008757587716554, 0.03767236504392124, 0.3854341990308747, 0.306103406716547, 0.31994453299714176, -0.144201008810248], [-0.4615598039230909, 0.19707847607489626, -0.09081111262813502, -0.3166675342576831, -0.03775619157137755, -0.22228771102811196, -0.4982210387810042, 0.18801719858240906, -0.062260798445237575, -0.022265634561666636], [0.4634767301990571, 0.46578221945431075, 0.1562673761980845, -0.39529203565066695, 0.4358179757694035, -0.14677125734308216, 0.11217003315264062, 0.42759623400294733, 0.14196846535265362, 0.19395860800499687], [-0.24067454256449938, 0.47490047168842275, -0.03531679556707712, 0.015947186696866233, -0.19151014545403877, -0.31422552272563875, -0.31136720299713594, -0.18802701949704015, -0.028313565505029503, -0.3344624879465573], [0.429109965542228, -0.38596145530760584, -0.15270042972212383, 0.2393074780043667, 0.39366582394248306, 0.10563872501542482, 0.44407893960328115, -0.39086603533091435, -0.47157698764832323, 0.14462638682283746], [-0.3029084202926373, 0.4749106861772673, 0.4656310883702739, -0.2972394372039622, 0.33225805057474445, -0.0026843030481558117, -0.18542334158918028, -0.46583863115186297, -0.18043347327246184, -0.3618485499383852], [0.45294163244813956, 0.18465965385085237, -0.1651561055562869, -0.350434785442152, 0.3231315678213812, -0.4462166693130615, -0.49899474158469925, -0.08689124027330575, -0.279984170197047, 0.47897496385500904]], [[-0.44627472237562027], [-0.11016178243957842], [0.20351271092124412], [-0.23712233522201542], [0.4485268187468805], [0.29603937972707717], [0.02873492893602858], [-0.2799246432842276], [0.02667476952984027], [0.29146228435668053]]]
[[[0.0629734720870796, -0.08803820517415817, 0.047676044467231615, -0.4250775398214096, 0.05073239210350555, -0.47715723281927525, -0.10168320574599188, -0.2981534599116322, -0.26154346465659295, 0.3458465243651342], [0.16092890739683985, 0.22522074229911815, -0.3023692699316607, -0.32645334334992937, -0.25844042733366557, 0.46182715351700865, -0.3190585677391843, -0.386719223220931, 0.15926538545806557, 0.09977196186532378], [0.23532672083790795, 0.32841314762989426, 0.42676554959874524, -0.05222627763757759, 0.18427774460456026, 0.180428360028835, -0.014494197732295433, -0.08633978162469258, -0.09085015537335639, -0.12648166392127347], [0.17730745798065772, -0.06099010850000819, -0.34423912599819884, -0.4407768232225039, -0.47359077692630613, 0.11182687868074814, 0.287585651375985, 0.16077624868744467, -0.289482524214544, -0.18861673635080856], [-0.47534902914291055, -0.08215918158281943, -0.39776231909351634, 0.354920150310011, 0.061336765366308055, 0.2752686984477165, 0.33988918355381237, 0.34512625928114415, 0.08866599969976496, 0.24674436704958724], [0.24268388289069986, -0.46688847062663086, -0.17880006690086636, -0.07463160459921792, -0.26009542767660965, -0.45012558973476313, -0.49791890040986486, -0.4495300736057023, -0.4578448956886565, -0.173584403372802], [-0.317198128397124, -0.26919698919374246, -0.26607512855876525, 0.44340077928319355, 0.0361034853392066, 0.4514152325131453, -0.2781712056798641, -0.27440328326128827, 0.39320288391259794, 0.32565268079165155], [0.39062505682150483, -0.47249864065906444, -0.04987486544873032, 0.2677654263831061, -0.07112047493577944, 0.058965647398449006, -0.3689642771636218, 0.01841936472263561, 0.11125976686004946, 0.4208686754918173], [0.1272929859372608, 0.025711554544869286, 0.2535667004701877, -0.11987333556081692, -0.3186153028096901, 0.2200964796546172, -0.438565184788979, 0.4820212254152757, 0.3493959522446748, -0.44095497694425334]], [[0.1001329663515349, 0.4028673242876294, 0.47024515055667593, -0.33259051652010285, -0.48214873964569216, -0.12261689567627743, -0.4023914648584528, -0.23727540544534786, -0.33325536387616417, 0.1506684454282572], [-0.342678290946159, -0.2030180006074045, 0.27990558713097446, -0.461452068537727, 0.03267027107815601, -0.042431113767776196, -0.04127813547914205, 0.05839002858630282, 0.08789837688303725, -0.04573268809724629], [0.3626014357425372, -0.4732597964077535, 0.49564452401295434, 0.020043116452825638, -0.15832558812543107, -0.4136045885943892, -0.3479599067134239, 0.28876811618719334, -0.22542395354575095, -0.32464319784009954], [0.44218817524832876, -0.19536256984851474, 0.285916719050027, 0.48262517901951074, 0.4217893862805263, -0.39359825011158134, 0.20183373195664522, -0.3162978740873723, -0.3452247608684459, -0.1708216080938526], [0.32339286127560896, -0.3613173688476037, 0.36471113366644903, 0.19921428543633557, -0.4256917416153181, 0.43591175992889064, -0.17040431041626325, -0.43400460140470964, -0.17427320575639582, 0.022792071728951147], [0.036562895548196694, 0.2793195397526351, 0.09547830036159799, 0.48199975318963173, -0.2040259350511775, -0.1554061787309955, 0.3913825995297019, 0.1721139022946675, -0.29538423791755997, -0.46224012462616015], [0.2771122461966784, -0.30605622177120906, 0.38665186664850504, -0.43337077313687666, 0.09954806591093945, 0.06605876202807115, -0.26283228301303607, 0.23336294180010453, 0.13629477693388625, 0.46693461668582437], [-0.07420795176380635, 0.09813941386097036, 0.13481631433308527, -0.2737728500638491, -0.2040851800121385, 0.06884842398773006, -0.19133614712699198, 0.08403351810632442, 0.3792003999054784, 0.14012591912837424], [-0.26539458258680004, -0.14981824965017854, 0.13423494072184539, -0.4479021624892696, -0.47948639416454863, 0.49720385071881534, -0.4125947071880155, 0.3306710433702076, -0.2660130326312631, -0.01635765864537797], [0.24601250527221585, 0.06772390170441467, 0.3847698818673079, -0.08266392355991892, -0.31024720813046625, 0.11331821232580952, 0.41722607009836266, -0.0017113240552847353, -0.35218600173655956, 0.3565986405315972]], [[-0.45111442298412086], [0.010038606732883038], [0.39190412013962406], [0.48068362926363983], [0.2128276710204089], [-0.40206529834233484], [0.22139062652862718], [0.2478803154973962], [-0.2960915753135962], [-0.3508561181949025]]]
[[[0.16569862912172828, 0.39337470056408597, -0.699334270053642, -0.2759167670479906, 0.6293912727494957, 0.7462192027072809, -0.6111221973238357, 0.02634591209149062, -0.7925129759024643, -0.3095312016461922], [0.577507920392768, 0.2652052092147865, -0.0882441479182704, -0.7957003164138444, -0.6385712909514019, 0.6577111304125756, -0.5470026686713318, 0.7080367507417094, 0.6523517488932551, 0.25615770485154354], [0.6944172769010806, -0.3396953271323083, -0.7341084197983792, 0.5942808559955552, -0.09753060375761413, -0.7354936721588644, -0.6331751475340959, 0.11154741156211434, 0.02648512257365332, 0.43628575245852796], [-0.7633082877995371, 0.09096134546202561, -0.0348217679087629, -0.2371427094304176, 0.38256563345046013, 0.5218678225149167, 0.2229970812493809, 0.12107601666667667, 0.49095446953478605, 0.7816781012172798], [-0.22008458808377807, 0.371793587203868, -0.3712072419551309, -0.4385477470184469, -0.747248061588146, 0.056595055903089, 0.3404544202079576, 0.19011373972815948, -0.7093167501316495, 0.713763115457134], [-0.44750528336732587, 0.3420262779059122, 0.7605031338903108, -0.29456427705738, 0.7827855324433999, 0.4917943110489287, -0.6567884695558981, -0.285132055096196, 0.34595087312236705, 0.5559271525761147], [-0.33105528515420013, 0.2591923300840864, 0.19289961856770432, 0.4073847463382687, -0.527862780921053, -0.45633765269544907, 0.1798712961329102, 0.5244498853275985, -0.43238403612918114, 0.022279408886387353], [-0.7290826609620571, -0.09826902149989214, 0.005459278440796522, 0.38699306387513377, 0.6204772660785449, -0.04584933978974792, 0.285703521490444, 0.7039979293122254, -0.6025634964963262, 0.7987589952490572], [-0.7650165557802066, 0.14556762339033558, -0.05530962584571886, -0.18795800693741982, -0.25350510132817416, 0.06785428684651928, -0.5751880412418914, -0.24323640655228262, 0.10237306696203441, 0.07295864332156476]], [[-0.14367638397152427, -0.3188039243960882, 0.23736711430115331, 0.12603715092436119, -0.345477285428394, 0.7792147157933982, 0.7147761728030324, 0.0071400572833046905, -0.7073539117521584, -0.6261174863154981], [0.6597056310387035, 0.5051239870945361, -0.3647622554085553, 0.3552785682425803, -0.419484843394544, 0.16748402024580322, -0.3134857384936369, 0.4606749754876627, -0.08458688838170814, 0.687451566679915], [0.12820795654072348, -0.035993200329386354, -0.1903645950588123, 0.29601189502635306, 0.0027441770526668297, -0.3905733190582025, -0.08452047277783259, 0.7269372688555455, -0.059820051210007996, 0.6664808646422278], [0.010204015788537135, -0.3988035728490411, -0.612769061886969, 0.385813261518825, 0.6469006471205372, -0.5203558691708677, -0.5812817884868695, -0.6470883406116755, -0.09979982712448032, 0.3762102973752315], [0.11335539531318806, -0.35885232158805813, -0.13106583462393595, -0.1396611497461887, -0.32918842591042363, -0.11066568933567267, 0.036533476593593184, -0.6636447709964524, 0.6859113003632122, 0.03519801546165502], [0.39345692173496705, 0.039823998535027494, -0.07664476408716858, -0.6331594235834459, -0.7094370004080519, -0.2810592800378363, -0.5424422390247756, 0.10703221140016894, 0.16812792414038102, -0.09428955209996936], [-0.6374877468248071, -0.3740666244119325, -0.7265412721865264, 0.6393152224643834, 0.6865070756704419, -0.6812522765462949, -0.24372756825709885, 0.5144700126984627, -0.11063449529197023, 0.7677463245675644], [-0.24898651397175742, -0.11128296606853338, 0.7471139053129023, -0.27788923639748, 0.29115584684746443, -0.34036709944034965, 0.2347270225246414, 0.6835419611970435, -0.5455429078755201, -0.2813216313943018], [0.7296756996566942, 0.5715275583557791, -0.7643784659499216, 0.6139293185829007, 0.6242241472247423, 0.557761928392768, -0.7405716222449645, 0.49751183303071267, 0.14486778498066233, 0.7649008417767471], [0.6724050245273918, 0.16361201173895545, 0.21073280213068268, 0.522864369708145, -0.23589107160372458, -0.14575670676995378, 0.7266912595570199, -0.22587069183849207, 0.4128462896811931, 0.4247941421113106]], [[0.27927190860573403], [0.32470152112013007], [0.06909352521928303], [-0.6506055754782376], [0.7937203652965461], [0.16998354868950827], [-0.34821350952517527], [-0.576823243624949], [-0.18758727452291635], [0.5867014470618306]]]
[[[-0.4127561720898163, 0.4800024356388657, 0.25333742151180827, -0.0908280654460325, -0.5238016971119166, -0.446650828961799, -0.7666409986710465, 0.163697855063339, -0.2890549982046754, 0.20346152056302147], [-0.14335670873318074, 0.6272223792598932, 0.031232901134543134, 0.5436517320910548, -0.5274830468166295, 0.7434825078102001, 0.6825094949143069, -0.7916573333552566, -0.32419099122858275, -0.23845478721401958], [0.31257045571554976, 0.3736085656706214, 0.06048055605947056, 0.5341787198212438, -0.4179533057240512, -0.05784707107454046, -0.5231936518320743, -0.02407377548771661, 0.14280662198803618, -0.03561159891798038], [0.3482308518009094, 0.3868078216713542, -0.36705946637801096, -0.0027185836446175227, -0.32609352630902394, -0.6526245695366684, -0.3464352372294176, 0.16063775688448256, -0.7338384568102587, -0.03424233864337156], [0.3771840255367669, -0.24410565684426333, -0.4253297164726476, -0.2547377033522852, 0.43217790064755146, -0.6439210019932631, -0.6059929969256352, -0.3424436110333652, -0.6194862918729952, 0.1565621722721391], [-0.44498629453823696, -0.45654416226783767, 0.74534719832057, -0.06414765690070856, 0.2279455562802606, 0.2976193646012322, -0.02849074549518904, -0.4343298634347111, -0.10316701404416517, 0.11772133024587694], [0.3291439914936387, -0.6288428237593495, 0.09530252972459041, -0.21247185232364285, -0.5295403866890034, 0.5279962035964882, 0.11184259512045291, -0.6217798556543701, -0.1996334574166756, 0.744953598639531], [-0.2390515092989306, -0.08206822157954152, -0.6404540665191654, 0.7198622065844396, -0.410968783257059, 0.2745374865113397, 0.7962582466533659, -0.7694408706014729, 0.6988571885352348, -0.7433789320509501], [-0.009395375966366748, 0.33505884829833943, 0.2670119903226369, 0.36470757700024103, -0.09678099459926437, 0.06715701102373794, -0.06815035756485899, -0.04999227661562988, -0.1685159606306511, 0.5225272580514575]], [[-0.21909167658523188, 0.0016562698009712218, -0.1578978501140098, -0.6159822344496884, 0.05251187453573092, 0.6663781244778946, -0.25833689239080315, -0.21170125875217527, -0.392347432262725, -0.4145469763935635], [-0.19898967457619976, -0.060022985211697466, -0.2399322821371147, 0.3036152071258713, -0.4603795881154067, 0.4058470677475503, 0.3675435939795111, -0.42795674531422584, -0.229924136586242, -0.7612109301782743], [0.43182417918461846, 0.5281594591233867, -0.5548686554632782, -0.11406711942063841, -0.45992052730110516, -0.7802182101431955, 0.47997295276409324, -0.583307363763418, 0.3513886230564256, -0.4024260290324884], [-0.6888618371688371, 0.1105668309022082, -0.3538786248892917, 0.09868401184983888, -0.7023228040414562, -0.5817449070135234, 0.7364990569782677, 0.5496771979858635, 0.2246203182947184, 0.6624052270258325], [0.30325907732643986, -0.11522685831538682, -0.4451434008655474, -0.6465586966808834, 0.10910940636597388, -0.6757836857915192, -0.5920460231646025, -0.34260831012441284, -0.5644617046547528, -0.6097933866931625], [-0.25810716774117937, -0.2151395895358702, -0.6523015362441253, -0.3981038924251788, 0.5763950597049137, -0.4993414024401309, -0.25048315928427056, -0.22231293515721795, 0.7553667662218255, 0.6123028444008545], [-0.18973305582777777, -0.5678953252019001, -0.6310973463272062, 0.2315653155362074, 0.0020242131908757566, -0.0940823253517975, -0.551286141073733, 0.7928128831872865, -0.5614964416304368, 0.2708532915822828], [0.6667215663557875, -0.16196673279774265, -0.5969508029186854, -0.3456798101120345, -0.21207506001261434, 0.12347464439336497, -0.0077906073213493965, -0.3350849078459597, 0.7889496570345418, -0.5628009260736019], [-0.7960242885958637, 0.35079010959039136, 0.7576314954718668, -0.04340356690048908, 0.49742306517500867, -0.42502705780542593, -0.5644486303196585, 0.6682360811197272, 0.07717461184949082, 0.21302085895240497], [-0.33899424480994544, 0.3690513330664924, 0.11352145208475162, -0.40403210283812396, -0.0710174405540206, -0.05573515664373829, 0.611746623351775, -0.10180479386152719, 0.43078972841664465, -0.6602664324493704]], [[-0.5190070280065986], [0.23347109443298253], [-0.10465034973681908], [-0.2748725035300984], [-0.6886103011317259], [0.47624483781213023], [-0.6400576594354859], [-0.02100447433577357], [0.752728586925169], [-0.47435340756770705]]]
[[[-0.4150421701269009, 0.35930364361496814, 0.14175596355527398, -0.4710554273500317, 0.15118008047697473, 0.3870317564479897, 0.05088564385724792, 0.28779082559392877, -0.3089139429720221, 0.31710693642618726], [0.43834945457935215, 0.48050539355544697, -0.4852385215939662, 0.11468871847262285, 0.3560288787429021, 0.13630948315099145, 0.039552533771928244, 0.3441018576452879, -0.1214237476680553, 0.2819237102129981], [0.07213539730501695, -0.2898623879933474, 0.30090497073199185, -0.44608158287844535, 0.445769460046616, -0.4918287696086029, 0.12156650413900749, -0.15831038933731523, -0.44974704420857314, 0.139813162233153], [0.0007659930488808087, 0.08052330651064332, 0.09302173744637299, -0.28764820325062324, -0.04550482955751789, 0.4652728128790231, 0.2177426360703525, -0.1921285047168101, 0.09010520974413883, -0.1247795523267371], [-0.18837185221333586, -0.0713415684571308, -0.14993773378442954, 0.3177807426484883, 0.35757141491450617, 0.35699839073408945, -0.33288994859202237, -0.03701821685930984, -0.13917373520445364, 0.09012619005581346], [-0.49851374406083826, -0.03647799685164044, 0.372586804602944, 0.2828292828446842, -0.15315423971293018, -0.2975419373684548, 0.3054247527807613, -0.3284934287060344, 0.37238340633089817, 0.4177871229391088], [-0.30979649885301597, 0.19014840533831845, 0.25220951715497, 0.23299940679734543, -0.39215564404938963, 0.22958075066839156, 0.3258490967929789, -0.4617454472158449, -0.40503753424668565, -0.4955394021304331], [-0.07719521806341656, 0.37259482673944744, -0.37202335849099044, -0.20904619282814263, 0.022535108206224952, 0.06260515609987227, -0.159434949205417, -0.34442940515716347, 0.2435802776815017, -0.273551963689569], [-0.10491216538458337, 0.44071534523254463, -0.4103362249099355, -0.29982142961381786, -0.025979060111112173, 0.03993320278840917, 0.02559327293163538, -0.49402148780556265, 0.10005780144388687, 0.08473809751868167], [-0.3564044448552406, -0.3665007179053432, -0.08014701407260849, 0.06805272260475337, -0.2659280745554381, -0.48546885641460835, -0.4251888099243044, -0.3983080864336145, -0.18928655016089724, 0.038272004004999416], [-0.447666514450099, 0.05437288116658212, -0.2521100638053638, -0.34092756694119997, 0.3256465509399481, -0.11938900657822304, 0.38412405418829354, -0.3228942074798854, 0.2117934387815098, -0.1438961505583587], [-0.35704707308190653, -0.18190186303402212, -0.3926983889417879, 0.3697854882998616, 0.006702605419465879, -0.4890812165229429, -0.4173905604717346, -0.1362617633580394, -0.011371068727841549, 0.4151317671902305], [0.15170459197067576, -0.20863793235515804, 0.11770392373695715, 0.22726291087628436, 0.17737877128978585, -0.28181898979806486, 0.1985201674250282, 0.1157068353996441, -0.26104825030305046, -0.11220285339883773], [-0.18516129863691388, 0.25431292360075997, -0.18018251835889265, 0.018894076589969444, -0.15515871112003465, 0.095081341053736, 0.15340294835017587, -0.38911232598737444, -0.3970662494093131, -0.009023461103352837], [0.18053709104470939, 0.32652793967130433, -0.14031695024226143, -0.42806628015532455, 0.47026560261351125, -0.4845787027498859, -0.0017905334352208424, -0.17826862062745508, 0.4195027993386671, -0.09250992675641312], [0.10767211005223665, -0.20486102230451442, -0.16546486800701554, -0.4619239826963747, -0.040195720241806954, -0.41069748284886576, 0.0962437343667728, -0.22096866624835554, -0.4821328086404081, -0.4597606655047717], [0.4845896598249465, 0.2611838065932406, -0.1185886872944476, -0.4089289861251766, -0.49395748288176256, 0.22435070060107953, -0.16877552430904663, -0.47363135384967125, -0.18954340477643883, -0.0528076568273268], [0.1809960888831721, -0.42560424625238935, -0.08529721412914726, 0.07185287098552207, 0.035559497959052555, -0.37965655775933504, 0.18407882597420722, -0.2658829142853075, 0.1490490281871344, -0.005294512172544175], [-0.15978919840086947, -0.0920265134920698, -0.4559851766077766, 0.06466925855189021, 0.19197388420455452, 0.43929003137005185, 0.025697286641607864, 0.019191320335810724, 0.4765809224028317, -0.16163071247819527], [-0.30601358357086494, -0.1951052550698691, -0.015740068184012523, 0.03155820384655961, 0.43049116298922696, -0.060146344740462765, 0.39836990677813566, 0.3135201684903357, 0.22289817351623287, 0.17103248976571106], [-0.1668788970469418, 0.28432646647715354, -0.3245688446239793, 0.188575527609123, -0.18080961836768517, 0.1827397041721488, 0.18639449289402554, 0.1631792920399613, 0.4386984752513471, 0.15797184636813033], [0.24214916548391308, 0.4882498276671128, 0.45781011550013895, -0.32150416056657305, -0.08927497609658808, -0.08596195963179876, 0.16992632078017234, 0.32463018055876514, -0.29382414008584967, 0.06609702737157863], [-0.25267341679006294, 0.3843097699918284, -0.47549080756656004, -0.19942172976782846, 0.3711365348639859, -0.49071292050907356, 0.047040462636590785, -0.38017853815803326, -0.09063372005680137, -0.3693576073885264], [0.06945417905589524, -0.33151549927887614, -0.28270638367714906, -0.1607881178137618, -0.45509793748693783, -0.20561224894627628, 0.43732500340542946, -0.44942972710336637, -0.2135089100771007, -0.05476109015759345], [-0.27803261416107106, 0.12503499648832095, 0.21314175495533716, -0.32860093943161484, 0.44563346283169136, 0.10121286442876476, -0.2628548403965254, 0.23359116587705897, 0.0003399107990577077, 0.28019300566570193], [-0.2670883578028569, 0.216397122921412, 0.0793532389882422, 0.2820746436195971, -0.05046858499944895, 0.3485298579372058, -0.13393757540260742, 0.42519341418185375, 0.4150899361695247, 0.09003855393784632], [0.40409527718121774, 0.35299201424841287, 0.19302614683228492, -0.32313571498332583, 0.09003994018779349, 0.056146277131515765, -0.17795757471893725, -0.4058545004770776, -0.28541235050001856, -0.2649857671685081]], [[-0.39887598207881103, -0.2794195138153205, -0.06147455890271525, -0.38443151055655456, -0.3992472416154983, -0.3252488530655997, -0.12309793835168137, -0.47861959218094163, -0.4591423970176691, -0.48421350988567247], [0.18577301840621008, 0.21057202794477337, -0.17477625191141188, 0.013935280214393053, 0.46277609296437117, 0.3224346504385164, 0.4475925987728059, -0.41343151113372933, -0.3213251345991609, -0.49092410610724857], [-0.4860244534466688, -0.3424817399440806, 0.11895211061097166, 0.2250465440213103, -0.06226202538989001, 0.18988555376186467, 0.46065758832490755, -0.21233436768516234, -0.46572763077396107, -0.338360645466126], [-0.33730142366918303, -0.4869867000242274, 0.3825422188683819, 0.14556254168704508, -0.012552082760404426, 0.41617399185955706, -0.03063689903451361, -0.29402034789029674, 0.013435871009640166, -0.4475871998501102], [0.4217966113117029, -0.47287592521410327, -0.28423087903644206, 0.12343674294903484, 0.03627285494862231, -0.1309998533013742, 0.23675419948487042, -0.19385141461632516, 0.4017416339558342, -0.3595261750883778], [-0.2707582353148802, 0.3536030773231045, -0.49980607073744276, 0.39244477251541154, 0.11625633869174257, 0.39014601208144406, 0.22894577713657693, 0.06687437841239463, 0.25139586748065323, 0.22954322073428335], [-0.439100877711203, 0.31473593073600414, 0.17358260078332655, -0.44132756298721676, -0.015318741976498518, 0.2177290259404524, 0.2424060212505983, -0.10204466304852833, -0.2719658507775816, 0.11355187698201108], [0.2937268452995242, 0.011755967922052246, -0.1391536438235056, 0.47680300708266155, 0.11216333222517605, 0.4754033677180066, -0.16163258878133002, 0.4500436455625063, 0.3735705787648751, -0.3947508908320897], [0.2223342855935525, -0.25584308241259135, 0.22964686690144476, 0.23625023016675872, -0.12675772897018434, -0.44812545740018506, -0.2971782578254579, -0.4296748487127391, 0.046979195241540594, -0.39810398118228807], [0.021832567876838516, -0.47751127607095345, -0.450516855630702, -0.18671114022377389, 0.29159925750523796, 0.3896966480484906, 0.26734677413560937, 0.0892112692077267, 0.4543060303746309, 0.05121452151464623]], [[-0.4461020786331684, 0.27840559254658914, -0.3810605638846264], [-0.025333763363603934, 0.31688548199124633, 0.3052481661994918], [-0.25002480346225875, -0.30923239146674397, 0.13882436186620728], [-0.40005575557874906, 0.10717270178655847, 0.351023320946913], [-0.19699584961142114, 0.390523125298189, -0.29271327815706105], [-0.07313397412907363, 0.26938779078562447, 0.3134984986292303], [-0.012394567123119704, 0.48432247443289134, 0.35561932002444707], [0.22598954142635463, -0.37280621547867643, 0.3378730405722453], [-0.14456387655128278, -0.14011134487280164, -0.1670160581463147], [-0.32727402929128335, 0.47570975620467526, 0.4519101674819064]]]
[[[0.6468123901553218, 0.5313206537414783, -0.5841591619085191], [0.2226635810958142, -0.29225268708833974, 0.3414012547773395], [-0.08486380660874793, -0.29484899095637873, -0.5351885773578882], [-0.9087009263011228, 0.6070601825775106, -0.5844792040378741], [-0.6668626528668842, 0.6257588781953893, 0.8159197942513019], [0.9639110515354095, 0.3751444277534166, -0.8019637943868809], [-0.33320215018283217, 0.3715712177199817, -0.2576116997733999], [-0.852465283771169, -0.9161305687881411, -0.224160968369695], [0.8389532265834387, 0.8173802312965688, -0.5228962358743718]], [[-0.8217231755428973, 0.2733944950884879, -0.19518084573643102], [-0.528326765231184, -0.12631408903899288, 0.8654934517087027], [-0.7043903765589055, 0.7216420439952833, -0.4224214272198845]], [[-0.45524353895688585], [-0.6312910332924], [0.48975940032927934]]]
ABS [[[0.1595531211256629], [0.2032490163017857], [0.1595531211256629], [0.2032490163017857], [-0.28470188434609445], [0.2032490163017857], [0.1595531211256629], [0.2032490163017857], [0.1595531211256629]]]